{
  "modelType": "linear_classifier_plus_linear_regressors",
  "featureEncoder": {
    "categoricalColumns": [
      "conditionLabel",
      "cueCondition",
      "materialClass",
      "targetId",
      "directionLabel",
      "viewState",
      "motionState"
    ],
    "booleanColumns": [
      "outOfView",
      "approaching",
      "speaking",
      "gazing",
      "near",
      "crossing",
      "frontHemisphere",
      "sideHemisphere",
      "rearHemisphere",
      "far",
      "activeMotion",
      "passivePresenceCandidate"
    ],
    "numericColumns": [
      "roomScale",
      "environmentReverbAmount",
      "environmentOcclusionStrength",
      "environmentDistanceAttenuation",
      "environmentRt60",
      "environmentDrr",
      "distance",
      "viewAngle",
      "radialSpeed",
      "lateralSpeed",
      "localX",
      "localY",
      "localZ"
    ],
    "categorySets": [
      {
        "column": "conditionLabel",
        "categories": [
          "Simulation"
        ]
      },
      {
        "column": "cueCondition",
        "categories": [
          "SimulationObjective"
        ]
      },
      {
        "column": "materialClass",
        "categories": [
          "Neutral"
        ]
      },
      {
        "column": "targetId",
        "categories": [
          "SimTarget"
        ]
      },
      {
        "column": "directionLabel",
        "categories": [
          "Back",
          "BackLeft",
          "BackRight",
          "Front",
          "FrontLeft",
          "FrontRight",
          "Left",
          "Right"
        ]
      },
      {
        "column": "viewState",
        "categories": [
          "InView",
          "OutOfView"
        ]
      },
      {
        "column": "motionState",
        "categories": [
          "ApproachingFast",
          "ApproachingSlow",
          "Crossing",
          "Leaving",
          "Static"
        ]
      }
    ],
    "numericStats": [
      {
        "column": "roomScale",
        "mean": 1.0,
        "std": 1.0
      },
      {
        "column": "environmentReverbAmount",
        "mean": 0.25,
        "std": 1.0
      },
      {
        "column": "environmentOcclusionStrength",
        "mean": 0.35,
        "std": 1.0
      },
      {
        "column": "environmentDistanceAttenuation",
        "mean": 0.35,
        "std": 1.0
      },
      {
        "column": "environmentRt60",
        "mean": 0.45,
        "std": 1.0
      },
      {
        "column": "environmentDrr",
        "mean": 6.0,
        "std": 1.0
      },
      {
        "column": "distance",
        "mean": 3.38625,
        "std": 2.2645084317573207
      },
      {
        "column": "viewAngle",
        "mean": 92.725,
        "std": 58.05341828867616
      },
      {
        "column": "radialSpeed",
        "mean": 0.2545,
        "std": 0.6598899529467016
      },
      {
        "column": "lateralSpeed",
        "mean": 0.06199999999999999,
        "std": 0.5353092564116559
      },
      {
        "column": "localX",
        "mean": -0.0015583800000000014,
        "std": 2.701079525932451
      },
      {
        "column": "localY",
        "mean": 0.0,
        "std": 1.0
      },
      {
        "column": "localZ",
        "mean": -0.09036,
        "std": 3.048063149332371
      }
    ]
  },
  "classifier": [
    {
      "label": "AmbientPresence",
      "centroid": [
        1.0,
        1.0,
        1.0,
        1.0,
        0.13333333333333333,
        0.15333333333333332,
        0.14666666666666667,
        0.1,
        0.12,
        0.07333333333333333,
        0.13333333333333333,
        0.14,
        0.29333333333333333,
        0.7066666666666667,
        0.0,
        0.0,
        0.41333333333333333,
        0.28,
        0.30666666666666664,
        0.7066666666666667,
        0.0,
        0.0,
        0.47333333333333333,
        0.49333333333333335,
        0.41333333333333333,
        0.29333333333333333,
        0.7666666666666667,
        0.43333333333333335,
        0.3333333333333333,
        0.41333333333333333,
        1.0,
        0.0,
        0.0,
        0.0,
        0.0,
        0.0,
        0.0,
        -0.14775097705142456,
        0.16493430158388614,
        -0.6402582705091203,
        0.1531824810011159,
        0.007858924476750441,
        0.0,
        -0.21336561005167576
      ]
    },
    {
      "label": "Footstep",
      "centroid": [
        1.0,
        1.0,
        1.0,
        1.0,
        0.10852713178294573,
        0.11627906976744186,
        0.13178294573643412,
        0.12403100775193798,
        0.12403100775193798,
        0.13178294573643412,
        0.13178294573643412,
        0.13178294573643412,
        0.3798449612403101,
        0.6201550387596899,
        0.5271317829457365,
        0.4728682170542636,
        0.0,
        0.0,
        0.0,
        0.6201550387596899,
        1.0,
        0.0,
        0.5116279069767442,
        0.3643410852713178,
        0.0,
        0.3798449612403101,
        0.7674418604651163,
        0.35658914728682173,
        0.4496124031007752,
        1.0,
        0.0,
        0.0,
        0.0,
        0.0,
        0.0,
        0.0,
        0.0,
        0.11784048646121176,
        -0.012889091392219307,
        1.0551383464610602,
        -0.11582090026913644,
        -0.004050651423945001,
        0.0,
        0.016852524249960543
      ]
    },
    {
      "label": "None",
      "centroid": [
        1.0,
        1.0,
        1.0,
        1.0,
        0.0,
        0.0,
        0.0,
        0.2916666666666667,
        0.2916666666666667,
        0.4166666666666667,
        0.0,
        0.0,
        1.0,
        0.0,
        0.0,
        0.0,
        0.0,
        0.4583333333333333,
        0.5416666666666666,
        0.0,
        0.0,
        0.0,
        0.5833333333333334,
        0.0,
        0.0,
        1.0,
        0.7083333333333334,
        0.0,
        0.6666666666666666,
        0.0,
        0.0,
        0.0,
        0.0,
        0.0,
        0.0,
        0.0,
        0.0,
        0.6758273209338511,
        -1.0481725588908057,
        -0.8024065188984125,
        -0.11582090026913644,
        0.0987469710187781,
        0.0,
        1.3103744671021151
      ]
    },
    {
      "label": "Voice",
      "centroid": [
        1.0,
        1.0,
        1.0,
        1.0,
        0.11447811447811448,
        0.12457912457912458,
        0.13468013468013468,
        0.12457912457912458,
        0.13468013468013468,
        0.12121212121212122,
        0.12121212121212122,
        0.12457912457912458,
        0.38047138047138046,
        0.6195286195286195,
        0.1750841750841751,
        0.1919191919191919,
        0.19865319865319866,
        0.2053872053872054,
        0.22895622895622897,
        0.6195286195286195,
        0.367003367003367,
        1.0,
        0.5084175084175084,
        0.4107744107744108,
        0.19865319865319866,
        0.38047138047138046,
        0.7609427609427609,
        0.37373737373737376,
        0.37037037037037035,
        1.0,
        0.0,
        0.0,
        0.0,
        0.0,
        0.0,
        0.0,
        0.0,
        -0.03117384477506755,
        0.006998952745430184,
        -0.07008871940588157,
        -0.017699577134644852,
        -0.010189333138970823,
        0.0,
        -0.005448219969509462
      ]
    }
  ],
  "linearClassifier": [
    {
      "label": "AmbientPresence",
      "weights": [
        0.06257882347874898,
        0.06257882347874898,
        0.06257882347874898,
        0.06257882347874898,
        0.008594621453841331,
        0.03682605265771819,
        0.0031088302544196775,
        -0.001465096675694419,
        0.01673367630233534,
        -0.05861400886331609,
        0.03069161328934169,
        0.026703135060103116,
        -0.04334542923667514,
        0.10592425271542398,
        -0.13575416300530008,
        -0.21901064275239382,
        0.3041439927446426,
        0.009059333964299485,
        0.10414030252750123,
        0.10592425271542398,
        -0.3547648057576942,
        -0.612919320626478,
        -0.009543147423007119,
        0.12574986248728356,
        0.3041439927446426,
        -0.04334542923667514,
        0.05544929870060199,
        0.04852950436597916,
        -0.019007244419941772,
        -0.3646590967874077,
        1.0341723456079022,
        0.0,
        0.0,
        0.0,
        0.0,
        0.0,
        0.0,
        -0.133854831886382,
        0.08639552028979074,
        -0.4697336684938966,
        0.09261788360365578,
        -0.03031578708949012,
        0.0,
        -0.17565569380467988
      ],
      "bias": 0.0631242431222542,
      "classWeight": 1.0
    },
    {
      "label": "Footstep",
      "weights": [
        0.012282913701737456,
        0.012282913701737456,
        0.012282913701737456,
        0.012282913701737456,
        0.0058218213646121135,
        -0.01197041380035753,
        0.015272374516257852,
        -0.0029182212322407955,
        -0.025802348624857706,
        -0.0018882511109520133,
        0.01761051210681704,
        0.01615744048245853,
        -0.030608820968050558,
        0.04289173466978799,
        0.16040537540663935,
        0.40901521224755727,
        -0.195394308969598,
        -0.13366853279474872,
        -0.22807483218811198,
        0.04289173466978799,
        0.5694205876541965,
        -0.7511560801785642,
        0.024655006204712823,
        0.015498990171613205,
        -0.195394308969598,
        -0.030608820968050558,
        0.00937931356936615,
        0.009123782080512425,
        0.03067647621949335,
        0.2168658726458195,
        -0.261540799572035,
        0.0,
        0.0,
        0.0,
        0.0,
        0.0,
        0.0,
        0.03620189645474101,
        0.037850097198731045,
        0.7360310413146747,
        -0.06397786225664276,
        -0.003243576908352513,
        0.0,
        -0.04448500007081355
      ],
      "bias": 0.012354404452630405,
      "classWeight": 1.0
    },
    {
      "label": "None",
      "weights": [
        -0.1310242285864264,
        -0.1310242285864264,
        -0.1310242285864264,
        -0.1310242285864264,
        -0.03526432887894369,
        -0.037846237796192395,
        -0.03971907422073695,
        -0.004406039527216547,
        0.015961830072152454,
        0.07158626041836026,
        -0.04982747484359909,
        -0.05150916381025036,
        0.08314205096329612,
        -0.21416627954972248,
        -0.07480950599204629,
        -0.09705829405595955,
        -0.10475243558600121,
        0.06575913880318492,
        0.07983686824439586,
        -0.21416627954972248,
        -0.17186780004800586,
        -0.21785386518289562,
        -0.03027865668915335,
        -0.17606261099964446,
        -0.10475243558600121,
        0.08314205096329612,
        -0.09135386018026613,
        -0.11282964089587309,
        0.013670318916704288,
        -0.3866950532040616,
        -0.14856557145077062,
        0.0,
        0.0,
        0.0,
        0.0,
        0.0,
        0.0,
        0.17026945002071145,
        -0.18971816193629068,
        -0.2341592823632401,
        -0.04164180642046801,
        0.037019189284882584,
        0.0,
        0.2832775407318207
      ],
      "bias": -0.1324190330144715,
      "classWeight": 1.0
    },
    {
      "label": "Voice",
      "weights": [
        0.05616249140593996,
        0.05616249140593996,
        0.05616249140593996,
        0.05616249140593996,
        0.020847886060490296,
        0.012990598938831744,
        0.021337869450059433,
        0.008789357435151766,
        -0.006893157749630073,
        -0.01108400044409216,
        0.0015253494474402858,
        0.008648588267688719,
        -0.00918780075857045,
        0.06535029216451049,
        0.05015829359070699,
        -0.09294627543920334,
        -0.003997248189043297,
        0.0588500600272645,
        0.04409766141621517,
        0.06535029216451049,
        -0.042787981848496325,
        1.5819292659879383,
        0.015166797907447693,
        0.034813758340747764,
        -0.003997248189043297,
        -0.00918780075857045,
        0.02652524791029795,
        0.0551763544493815,
        -0.02533955071625587,
        0.5344882773456493,
        -0.6240659745850952,
        0.0,
        0.0,
        0.0,
        0.0,
        0.0,
        0.0,
        -0.07261651458907047,
        0.06547254444776861,
        -0.03213809045753871,
        0.013001785073454992,
        -0.003459825287039972,
        0.0,
        -0.06313684685632731
      ],
      "bias": 0.05694038543958699,
      "classWeight": 1.0
    }
  ],
  "regressors": [
    {
      "target": "cueLowPassHz",
      "weights": [
        39.03204582426547,
        39.03204582426547,
        39.03204582426547,
        39.03204582426547,
        -71.57407195393846,
        -154.78991443992578,
        -155.63896521292108,
        61.92754319658204,
        96.43891557200351,
        70.83337989791092,
        93.84015348393932,
        97.99500528061496,
        229.19983866649645,
        -190.16779284223105,
        6.370001549929651,
        18.427938921815112,
        -4.700290713912868,
        31.163110396270913,
        -12.228714329837363,
        -190.16779284223105,
        24.79794047174477,
        50.3489835576375,
        41.87309166074734,
        618.8068712167342,
        -4.700290713912868,
        229.19983866649645,
        48.67857458162189,
        -382.0029516067854,
        -1033.4572363626125,
        20.625428897965616,
        104.45009528093132,
        0.0,
        0.0,
        0.0,
        0.0,
        0.0,
        0.0,
        -2322.8281577074245,
        -659.2978482922638,
        -17.307351270193152,
        -23.430041155356033,
        26.137209550872964,
        0.0,
        -461.6217964426598
      ],
      "bias": 15590.398033446083
    },
    {
      "target": "cueOcclusionGain",
      "weights": [
        0.002638318666463779,
        0.002638318666463779,
        0.002638318666463779,
        0.002638318666463779,
        -0.004064138168693296,
        -0.012600480242818159,
        -0.012892567831401781,
        0.002004612943451533,
        0.013540026535589457,
        0.012690611777472965,
        0.0018486717770124714,
        0.0021115818758505787,
        0.02823525125651396,
        -0.025596932590050196,
        -6.383957561264576e-05,
        0.0007420766150828549,
        0.0010331472194532578,
        0.00041882679077288637,
        0.0005081076167674234,
        -0.025596932590050196,
        0.000678237039470209,
        0.0001334610515059334,
        0.0009522760662674912,
        0.0003562858222255377,
        0.0010331472194532578,
        0.02823525125651396,
        0.004697843891705544,
        -0.029557186242913223,
        0.0012623655309830333,
        0.0017595404312900523,
        -0.0003769751885559021,
        0.0,
        0.0,
        0.0,
        0.0,
        0.0,
        0.0,
        0.0005530769325695734,
        -0.05621268692177418,
        -0.0010277306104158241,
        -0.0010694004311165646,
        0.00028028803883129426,
        0.0,
        0.029411945323522322
      ],
      "bias": 0.8256597924701702
    },
    {
      "target": "cueReverbAmount",
      "weights": [
        -0.0024567840215967574,
        -0.0024567840215967574,
        -0.0024567840215967574,
        -0.0024567840215967574,
        -0.0009204475639524575,
        -0.0003909210697682021,
        -0.0002703116993491569,
        -0.0002476974811106986,
        -0.0003573291075319728,
        -0.003253132392348554,
        0.001366240224245235,
        0.0016168150682190506,
        -0.0038581589809912288,
        0.0014013749593944672,
        0.00011752382672068095,
        0.002407766325313221,
        0.0029575756678062665,
        -0.002983781640604136,
        -0.0049558682008327875,
        0.0014013749593944672,
        0.0025252901520339014,
        0.007856126398337005,
        -0.002175760883712733,
        0.0036331712556653614,
        0.0029575756678062665,
        -0.0038581589809912288,
        -0.0012886389765336024,
        -0.0015816803330698174,
        -0.0021760382431215857,
        0.012249549915642461,
        0.006896724026287252,
        0.0,
        0.0,
        0.0,
        0.0,
        0.0,
        0.0,
        -0.004487021410042558,
        0.0011875963962680713,
        0.005551757085100915,
        0.0009039913364262014,
        -0.0012901708110913204,
        0.0,
        -0.00742681369520308
      ],
      "bias": 0.23754006883317433
    },
    {
      "target": "presenceScore",
      "weights": [
        -0.013114664617595436,
        -0.013114664617595436,
        -0.013114664617595436,
        -0.013114664617595436,
        -0.0036216003047184805,
        0.0015035869363019688,
        6.110263670289909e-05,
        -0.0070279667909826735,
        -0.01257021174464124,
        -0.01530364666924478,
        0.011930193708167725,
        0.011913877610819149,
        -0.03490182520486873,
        0.021787160587273268,
        0.018616547453720166,
        -0.01286310326011082,
        0.024074215137085755,
        -0.015051877811490474,
        -0.027890446136800078,
        0.021787160587273268,
        0.005753444193609349,
        0.061511244007472536,
        0.03727910721000912,
        0.028635774745152307,
        0.024074215137085755,
        -0.03490182520486873,
        -0.0024650975218942833,
        -0.002056910731713612,
        -0.04044079405755383,
        0.0358184810190492,
        -0.021603828565763945,
        0.0,
        0.0,
        0.0,
        0.0,
        0.0,
        0.0,
        -0.08443714408128138,
        0.029119998402947427,
        0.04946821610855359,
        0.00557087423584564,
        -0.0013067495359710421,
        0.0,
        -0.016807784384969285
      ],
      "bias": 0.5207683741051533
    },
    {
      "target": "volumeGain",
      "weights": [
        -0.008363595184637121,
        -0.008363595184637121,
        -0.008363595184637121,
        -0.008363595184637121,
        -0.005513503040398637,
        -0.006345660378081298,
        -0.007323037301438866,
        -0.003473197351603485,
        -0.002994017904106788,
        -0.005861897578521374,
        0.01166161891088207,
        0.01148609945863126,
        -0.012329112834231642,
        0.003965517649594528,
        0.012548231980992955,
        -0.007857219332975033,
        0.01748662339498104,
        -0.010898001100572709,
        -0.01964323012706338,
        0.003965517649594528,
        0.004691012648017938,
        0.044521481442993845,
        0.026198297540737173,
        0.03615715401491955,
        0.01748662339498104,
        -0.012329112834231642,
        0.0006231052073650027,
        -0.019182200719918805,
        -0.040650563682454725,
        0.02695313730222726,
        -0.012343785298798643,
        0.0,
        0.0,
        0.0,
        0.0,
        0.0,
        0.0,
        -0.09011163023379856,
        -0.010032869662732345,
        0.0343983290047432,
        0.003963922538177645,
        -0.0009780901787948704,
        0.0,
        -0.009458004686793016
      ],
      "bias": 0.36553781649143696
    }
  ],
  "targetClassColumn": "cueType",
  "targetRegressionColumns": [
    "presenceScore",
    "volumeGain",
    "cueLowPassHz",
    "cueReverbAmount",
    "cueOcclusionGain"
  ],
  "classCounts": [
    {
      "label": "AmbientPresence",
      "count": 150
    },
    {
      "label": "Footstep",
      "count": 129
    },
    {
      "label": "None",
      "count": 24
    },
    {
      "label": "Voice",
      "count": 297
    }
  ],
  "metrics": {
    "train": {
      "rows": 600,
      "cueTypeAccuracy": 0.985,
      "cueTypePerClassAccuracy": {
        "AmbientPresence": 1.0,
        "Footstep": 1.0,
        "None": 0.625,
        "Voice": 1.0
      },
      "cueTypeConfusion": {
        "AmbientPresence": {
          "AmbientPresence": 150,
          "Footstep": 0,
          "None": 0,
          "Voice": 0
        },
        "Footstep": {
          "AmbientPresence": 0,
          "Footstep": 129,
          "None": 0,
          "Voice": 0
        },
        "None": {
          "AmbientPresence": 9,
          "Footstep": 0,
          "None": 15,
          "Voice": 0
        },
        "Voice": {
          "AmbientPresence": 0,
          "Footstep": 0,
          "None": 0,
          "Voice": 297
        }
      },
      "regressionMae": {
        "presenceScore": 0.05208269768263884,
        "volumeGain": 0.041822285200222735,
        "cueLowPassHz": 889.4158051329879,
        "cueReverbAmount": 0.02118847567581734,
        "cueOcclusionGain": 0.017682836486033544
      }
    },
    "test": {
      "rows": 200,
      "cueTypeAccuracy": 0.975,
      "cueTypePerClassAccuracy": {
        "AmbientPresence": 1.0,
        "Footstep": 1.0,
        "None": 0.5833333333333334,
        "Voice": 1.0
      },
      "cueTypeConfusion": {
        "AmbientPresence": {
          "AmbientPresence": 54,
          "Footstep": 0,
          "None": 0,
          "Voice": 0
        },
        "Footstep": {
          "AmbientPresence": 0,
          "Footstep": 31,
          "None": 0,
          "Voice": 0
        },
        "None": {
          "AmbientPresence": 5,
          "Footstep": 0,
          "None": 7,
          "Voice": 0
        },
        "Voice": {
          "AmbientPresence": 0,
          "Footstep": 0,
          "None": 0,
          "Voice": 103
        }
      },
      "regressionMae": {
        "presenceScore": 0.057086038593383945,
        "volumeGain": 0.046089768686300936,
        "cueLowPassHz": 921.276647397844,
        "cueReverbAmount": 0.025086760904751128,
        "cueOcclusionGain": 0.018723630341786493
      }
    },
    "epochs": 80,
    "classifier": "linear",
    "classifierEpochs": 220,
    "classWeight": "none",
    "splitMode": "random",
    "groupColumns": []
  }
}