{
  "modelType": "linear_classifier_plus_linear_regressors",
  "featureEncoder": {
    "categoricalColumns": [
      "conditionLabel",
      "cueCondition",
      "materialClass",
      "targetId",
      "directionLabel"
    ],
    "booleanColumns": [
      "outOfView",
      "approaching",
      "speaking",
      "gazing",
      "near",
      "crossing"
    ],
    "numericColumns": [
      "roomScale",
      "environmentReverbAmount",
      "environmentOcclusionStrength",
      "environmentDistanceAttenuation",
      "environmentRt60",
      "environmentDrr",
      "distance",
      "viewAngle",
      "radialSpeed",
      "lateralSpeed",
      "localX",
      "localY",
      "localZ"
    ],
    "categorySets": [
      {
        "column": "conditionLabel",
        "categories": [
          "Simulation"
        ]
      },
      {
        "column": "cueCondition",
        "categories": [
          "SimulationObjective"
        ]
      },
      {
        "column": "materialClass",
        "categories": [
          "Neutral"
        ]
      },
      {
        "column": "targetId",
        "categories": [
          "SimTarget"
        ]
      },
      {
        "column": "directionLabel",
        "categories": [
          "Back",
          "BackLeft",
          "BackRight",
          "Front",
          "FrontLeft",
          "FrontRight",
          "Left",
          "Right"
        ]
      }
    ],
    "numericStats": [
      {
        "column": "roomScale",
        "mean": 1.0,
        "std": 1.0
      },
      {
        "column": "environmentReverbAmount",
        "mean": 0.25,
        "std": 1.0
      },
      {
        "column": "environmentOcclusionStrength",
        "mean": 0.35,
        "std": 1.0
      },
      {
        "column": "environmentDistanceAttenuation",
        "mean": 0.35,
        "std": 1.0
      },
      {
        "column": "environmentRt60",
        "mean": 0.45,
        "std": 1.0
      },
      {
        "column": "environmentDrr",
        "mean": 6.0,
        "std": 1.0
      },
      {
        "column": "distance",
        "mean": 3.38625,
        "std": 2.2645084317573207
      },
      {
        "column": "viewAngle",
        "mean": 92.725,
        "std": 58.05341828867616
      },
      {
        "column": "radialSpeed",
        "mean": 0.2545,
        "std": 0.6598899529467016
      },
      {
        "column": "lateralSpeed",
        "mean": 0.06199999999999999,
        "std": 0.5353092564116559
      },
      {
        "column": "localX",
        "mean": -0.0015583800000000014,
        "std": 2.701079525932451
      },
      {
        "column": "localY",
        "mean": 0.0,
        "std": 1.0
      },
      {
        "column": "localZ",
        "mean": -0.09036,
        "std": 3.048063149332371
      }
    ]
  },
  "classifier": [
    {
      "label": "AmbientPresence",
      "centroid": [
        1.0,
        1.0,
        1.0,
        1.0,
        0.13333333333333333,
        0.15333333333333332,
        0.14666666666666667,
        0.1,
        0.12,
        0.07333333333333333,
        0.13333333333333333,
        0.14,
        0.7066666666666667,
        0.0,
        0.0,
        0.47333333333333333,
        0.49333333333333335,
        0.41333333333333333,
        0.0,
        0.0,
        0.0,
        0.0,
        0.0,
        0.0,
        -0.14775097705142456,
        0.16493430158388614,
        -0.6402582705091203,
        0.1531824810011159,
        0.007858924476750441,
        0.0,
        -0.21336561005167576
      ]
    },
    {
      "label": "Footstep",
      "centroid": [
        1.0,
        1.0,
        1.0,
        1.0,
        0.10852713178294573,
        0.11627906976744186,
        0.13178294573643412,
        0.12403100775193798,
        0.12403100775193798,
        0.13178294573643412,
        0.13178294573643412,
        0.13178294573643412,
        0.6201550387596899,
        1.0,
        0.0,
        0.5116279069767442,
        0.3643410852713178,
        0.0,
        0.0,
        0.0,
        0.0,
        0.0,
        0.0,
        0.0,
        0.11784048646121176,
        -0.012889091392219307,
        1.0551383464610602,
        -0.11582090026913644,
        -0.004050651423945001,
        0.0,
        0.016852524249960543
      ]
    },
    {
      "label": "None",
      "centroid": [
        1.0,
        1.0,
        1.0,
        1.0,
        0.0,
        0.0,
        0.0,
        0.2916666666666667,
        0.2916666666666667,
        0.4166666666666667,
        0.0,
        0.0,
        0.0,
        0.0,
        0.0,
        0.5833333333333334,
        0.0,
        0.0,
        0.0,
        0.0,
        0.0,
        0.0,
        0.0,
        0.0,
        0.6758273209338511,
        -1.0481725588908057,
        -0.8024065188984125,
        -0.11582090026913644,
        0.0987469710187781,
        0.0,
        1.3103744671021151
      ]
    },
    {
      "label": "Voice",
      "centroid": [
        1.0,
        1.0,
        1.0,
        1.0,
        0.11447811447811448,
        0.12457912457912458,
        0.13468013468013468,
        0.12457912457912458,
        0.13468013468013468,
        0.12121212121212122,
        0.12121212121212122,
        0.12457912457912458,
        0.6195286195286195,
        0.367003367003367,
        1.0,
        0.5084175084175084,
        0.4107744107744108,
        0.19865319865319866,
        0.0,
        0.0,
        0.0,
        0.0,
        0.0,
        0.0,
        -0.03117384477506755,
        0.006998952745430184,
        -0.07008871940588157,
        -0.017699577134644852,
        -0.010189333138970823,
        0.0,
        -0.005448219969509462
      ]
    }
  ],
  "linearClassifier": [
    {
      "label": "AmbientPresence",
      "weights": [
        0.11464344868762424,
        0.11464344868762424,
        0.11464344868762424,
        0.11464344868762424,
        0.007009601434594364,
        0.05703540162575279,
        0.007012220893429479,
        -0.002983019534899824,
        0.02209750934776916,
        -0.07305254194116222,
        0.05243915904777456,
        0.045085117814365895,
        0.16858150081591708,
        -0.5010992842601718,
        -0.8366238390391433,
        0.0006131889878260128,
        0.16676009590473354,
        0.3867601935438202,
        0.0,
        0.0,
        0.0,
        0.0,
        0.0,
        0.0,
        -0.1585060127927484,
        0.11580310868181323,
        -0.6420615725205036,
        0.10712172329403262,
        -0.037913701461551555,
        0.0,
        -0.22192949131919246
      ],
      "bias": 0.11546564507675024
    },
    {
      "label": "Footstep",
      "weights": [
        0.013209508120639353,
        0.013209508120639353,
        0.013209508120639353,
        0.013209508120639353,
        0.01009819309040615,
        -0.017983626053986387,
        0.014479984751608992,
        -0.0018554892055330956,
        -0.02891676739335527,
        0.001725093616182412,
        0.01764485262477471,
        0.018017266690541843,
        0.042256671103345314,
        0.688844554031981,
        -0.7292888203384447,
        0.03277294265994521,
        0.00985417001235396,
        -0.23400704244601173,
        0.0,
        0.0,
        0.0,
        0.0,
        0.0,
        0.0,
        0.05221585527641929,
        0.03536815573246666,
        0.8468358603651401,
        -0.0724480847212241,
        0.0012174461707972872,
        0.0,
        -0.03989701545269208
      ],
      "bias": 0.013286246395193133
    },
    {
      "label": "None",
      "weights": [
        -0.20396016309475776,
        -0.20396016309475776,
        -0.20396016309475776,
        -0.20396016309475776,
        -0.04307162676415156,
        -0.05114436795078248,
        -0.05379268325147526,
        -0.00048356581264724326,
        0.00787139756525327,
        0.06780673027063536,
        -0.06414377284222478,
        -0.06700227430936494,
        -0.27915472511799916,
        -0.2082730544926154,
        -0.2567563226505996,
        -0.059049773434575126,
        -0.20560078669561893,
        -0.13712387819783026,
        0.0,
        0.0,
        0.0,
        0.0,
        0.0,
        0.0,
        0.16676131688499915,
        -0.22356776308009862,
        -0.24889823106410433,
        -0.0457268155507259,
        0.03831470955649932,
        0.0,
        0.3160000957966099
      ],
      "bias": -0.2059244578068213
    },
    {
      "label": "Voice",
      "weights": [
        0.0761072062864941,
        0.0761072062864941,
        0.0761072062864941,
        0.0761072062864941,
        0.02596383223915104,
        0.01209259237901607,
        0.0323004776064368,
        0.005322074553080173,
        -0.0010521395196671638,
        0.003520718054344501,
        -0.005940238830324422,
        0.003899889804457119,
        0.06831655319873658,
        0.02052778472080575,
        1.822668982028186,
        0.025663641786803842,
        0.0289865207785314,
        -0.015629272899977915,
        0.0,
        0.0,
        0.0,
        0.0,
        0.0,
        0.0,
        -0.06047115936867007,
        0.072396498665819,
        0.04412394321946726,
        0.01105317697791761,
        -0.0016184542657450667,
        0.0,
        -0.05417358902472541
      ],
      "bias": 0.07717256633487792
    }
  ],
  "regressors": [
    {
      "target": "cueLowPassHz",
      "weights": [
        -20.14491517004877,
        -20.14491517004877,
        -20.14491517004877,
        -20.14491517004877,
        -96.60464678204612,
        -192.65592433359413,
        -193.3034990166542,
        67.09851679076806,
        138.29731885528489,
        110.12501368836566,
        72.43260946094107,
        74.46569616688608,
        -335.6657645044673,
        1.5052166751436251,
        21.98952256122677,
        26.39156979349942,
        688.1700703928612,
        -12.430977350044389,
        0.0,
        0.0,
        0.0,
        0.0,
        0.0,
        0.0,
        -2663.4718272392543,
        -844.3079087860509,
        -32.493421859488244,
        -21.29801694523661,
        26.168931912972045,
        0.0,
        -343.1583887135159
      ],
      "bias": 15531.122011503445
    },
    {
      "target": "cueOcclusionGain",
      "weights": [
        0.004198433410548909,
        0.004198433410548909,
        0.004198433410548909,
        0.004198433410548909,
        -0.005347700325917652,
        -0.01568359961930788,
        -0.016007129349436607,
        0.004412539714677368,
        0.02064803158259193,
        0.019313624357633775,
        -0.0017126842932586078,
        -0.0014246486564334269,
        -0.04017576224435418,
        0.0013361333677627467,
        0.0011068601339802905,
        0.001707327997010485,
        0.0005084655291444646,
        0.001911140243909656,
        0.0,
        0.0,
        0.0,
        0.0,
        0.0,
        0.0,
        0.0016464160101770154,
        -0.07905788712233953,
        -0.0012670040751812757,
        -0.0013171922951291856,
        0.00021976371665518893,
        0.0,
        0.04319412014394285
      ],
      "bias": 0.8272216979753064
    },
    {
      "target": "cueReverbAmount",
      "weights": [
        -0.0017346564490697658,
        -0.0017346564490697658,
        -0.0017346564490697658,
        -0.0017346564490697658,
        -0.0007609802716177375,
        -0.0002580150922613557,
        -0.00010161237409938373,
        -0.000371734102533479,
        -0.00083805744494116,
        -0.003791542211414283,
        0.0020444403698388846,
        0.0023428446779587488,
        0.0032666773098191564,
        0.003616519059545313,
        0.008537968138732208,
        -0.0018886718398165498,
        0.00410927532471164,
        0.0049278568689777565,
        0.0,
        0.0,
        0.0,
        0.0,
        0.0,
        0.0,
        -0.0051697965573488675,
        0.0026949165918624136,
        0.006844636222346353,
        0.0015342852513894514,
        -0.001338940016102869,
        0.0,
        -0.008434237812573044
      ],
      "bias": 0.23826305977941417
    },
    {
      "target": "presenceScore",
      "weights": [
        -0.017434601266841928,
        -0.017434601266841928,
        -0.017434601266841928,
        -0.017434601266841928,
        -0.0038726940423678556,
        0.002477325686918076,
        0.0013901470059402806,
        -0.01068843213248666,
        -0.019220027509666848,
        -0.021329302608193438,
        0.016840392513177323,
        0.016967989819837197,
        0.033803160983505026,
        0.009332614764526742,
        0.06723821239864937,
        0.03579445873391909,
        0.0300680006763217,
        0.030430173279055717,
        0.0,
        0.0,
        0.0,
        0.0,
        0.0,
        0.0,
        -0.09731164204803075,
        0.04681367632693146,
        0.06308028478178011,
        0.007812468584969973,
        -0.001144562450095241,
        0.0,
        -0.027063155579986255
      ],
      "bias": 0.5164432167900986
    },
    {
      "target": "volumeGain",
      "weights": [
        -0.011627522962125008,
        -0.011627522962125008,
        -0.011627522962125008,
        -0.011627522962125008,
        -0.006560133730318889,
        -0.0073350528154940515,
        -0.008084306433000735,
        -0.005201730322588727,
        -0.004656663639071075,
        -0.007303966196729774,
        0.013798723871004597,
        0.013715606304073646,
        0.005534837196264572,
        0.007121803544221489,
        0.04838498704925031,
        0.025213624411185274,
        0.03809127962059922,
        0.022384094069000795,
        0.0,
        0.0,
        0.0,
        0.0,
        0.0,
        0.0,
        -0.10309407375398918,
        -0.008225261026803554,
        0.04363453840969749,
        0.005524469573886232,
        -0.0008988884554790082,
        0.0,
        -0.010191906452635052
      ],
      "bias": 0.3622695299049639
    }
  ],
  "targetClassColumn": "cueType",
  "targetRegressionColumns": [
    "presenceScore",
    "volumeGain",
    "cueLowPassHz",
    "cueReverbAmount",
    "cueOcclusionGain"
  ],
  "classCounts": [
    {
      "label": "AmbientPresence",
      "count": 150
    },
    {
      "label": "Footstep",
      "count": 129
    },
    {
      "label": "None",
      "count": 24
    },
    {
      "label": "Voice",
      "count": 297
    }
  ],
  "metrics": {
    "train": {
      "rows": 600,
      "cueTypeAccuracy": 0.9633333333333334,
      "regressionMae": {
        "presenceScore": 0.06698259120562389,
        "volumeGain": 0.050597556441585326,
        "cueLowPassHz": 1010.3984096276304,
        "cueReverbAmount": 0.021231127289706643,
        "cueOcclusionGain": 0.024166903648786885
      }
    },
    "test": {
      "rows": 200,
      "cueTypeAccuracy": 0.955,
      "regressionMae": {
        "presenceScore": 0.07471527554321074,
        "volumeGain": 0.05510160859565563,
        "cueLowPassHz": 1025.1372458402102,
        "cueReverbAmount": 0.024985677477877263,
        "cueOcclusionGain": 0.025030753397355044
      }
    },
    "epochs": 80,
    "classifier": "linear",
    "classifierEpochs": 220
  }
}