{
  "modelType": "linear_classifier_plus_linear_regressors",
  "featureEncoder": {
    "categoricalColumns": [
      "conditionLabel",
      "cueCondition",
      "materialClass",
      "targetId",
      "directionLabel",
      "viewState",
      "motionState"
    ],
    "booleanColumns": [
      "outOfView",
      "approaching",
      "speaking",
      "gazing",
      "near",
      "crossing"
    ],
    "numericColumns": [
      "roomScale",
      "environmentReverbAmount",
      "environmentOcclusionStrength",
      "environmentDistanceAttenuation",
      "environmentRt60",
      "environmentDrr",
      "distance",
      "viewAngle",
      "radialSpeed",
      "lateralSpeed",
      "localX",
      "localY",
      "localZ"
    ],
    "categorySets": [
      {
        "column": "conditionLabel",
        "categories": [
          "Simulation"
        ]
      },
      {
        "column": "cueCondition",
        "categories": [
          "SimulationObjective"
        ]
      },
      {
        "column": "materialClass",
        "categories": [
          "Neutral"
        ]
      },
      {
        "column": "targetId",
        "categories": [
          "SimTarget"
        ]
      },
      {
        "column": "directionLabel",
        "categories": [
          "Back",
          "BackLeft",
          "BackRight",
          "Front",
          "FrontLeft",
          "FrontRight",
          "Left",
          "Right"
        ]
      },
      {
        "column": "viewState",
        "categories": [
          "InView",
          "OutOfView"
        ]
      },
      {
        "column": "motionState",
        "categories": [
          "ApproachingFast",
          "ApproachingSlow",
          "Crossing",
          "Leaving",
          "Static"
        ]
      }
    ],
    "numericStats": [
      {
        "column": "roomScale",
        "mean": 1.0,
        "std": 1.0
      },
      {
        "column": "environmentReverbAmount",
        "mean": 0.25,
        "std": 1.0
      },
      {
        "column": "environmentOcclusionStrength",
        "mean": 0.35,
        "std": 1.0
      },
      {
        "column": "environmentDistanceAttenuation",
        "mean": 0.35,
        "std": 1.0
      },
      {
        "column": "environmentRt60",
        "mean": 0.45,
        "std": 1.0
      },
      {
        "column": "environmentDrr",
        "mean": 6.0,
        "std": 1.0
      },
      {
        "column": "distance",
        "mean": 3.38625,
        "std": 2.2645084317573207
      },
      {
        "column": "viewAngle",
        "mean": 92.725,
        "std": 58.05341828867616
      },
      {
        "column": "radialSpeed",
        "mean": 0.2545,
        "std": 0.6598899529467016
      },
      {
        "column": "lateralSpeed",
        "mean": 0.06199999999999999,
        "std": 0.5353092564116559
      },
      {
        "column": "localX",
        "mean": -0.0015583800000000014,
        "std": 2.701079525932451
      },
      {
        "column": "localY",
        "mean": 0.0,
        "std": 1.0
      },
      {
        "column": "localZ",
        "mean": -0.09036,
        "std": 3.048063149332371
      }
    ]
  },
  "classifier": [
    {
      "label": "AmbientPresence",
      "centroid": [
        1.0,
        1.0,
        1.0,
        1.0,
        0.13333333333333333,
        0.15333333333333332,
        0.14666666666666667,
        0.1,
        0.12,
        0.07333333333333333,
        0.13333333333333333,
        0.14,
        0.29333333333333333,
        0.7066666666666667,
        0.0,
        0.0,
        0.41333333333333333,
        0.28,
        0.30666666666666664,
        0.7066666666666667,
        0.0,
        0.0,
        0.47333333333333333,
        0.49333333333333335,
        0.41333333333333333,
        0.0,
        0.0,
        0.0,
        0.0,
        0.0,
        0.0,
        -0.14775097705142456,
        0.16493430158388614,
        -0.6402582705091203,
        0.1531824810011159,
        0.007858924476750441,
        0.0,
        -0.21336561005167576
      ]
    },
    {
      "label": "Footstep",
      "centroid": [
        1.0,
        1.0,
        1.0,
        1.0,
        0.10852713178294573,
        0.11627906976744186,
        0.13178294573643412,
        0.12403100775193798,
        0.12403100775193798,
        0.13178294573643412,
        0.13178294573643412,
        0.13178294573643412,
        0.3798449612403101,
        0.6201550387596899,
        0.5271317829457365,
        0.4728682170542636,
        0.0,
        0.0,
        0.0,
        0.6201550387596899,
        1.0,
        0.0,
        0.5116279069767442,
        0.3643410852713178,
        0.0,
        0.0,
        0.0,
        0.0,
        0.0,
        0.0,
        0.0,
        0.11784048646121176,
        -0.012889091392219307,
        1.0551383464610602,
        -0.11582090026913644,
        -0.004050651423945001,
        0.0,
        0.016852524249960543
      ]
    },
    {
      "label": "None",
      "centroid": [
        1.0,
        1.0,
        1.0,
        1.0,
        0.0,
        0.0,
        0.0,
        0.2916666666666667,
        0.2916666666666667,
        0.4166666666666667,
        0.0,
        0.0,
        1.0,
        0.0,
        0.0,
        0.0,
        0.0,
        0.4583333333333333,
        0.5416666666666666,
        0.0,
        0.0,
        0.0,
        0.5833333333333334,
        0.0,
        0.0,
        0.0,
        0.0,
        0.0,
        0.0,
        0.0,
        0.0,
        0.6758273209338511,
        -1.0481725588908057,
        -0.8024065188984125,
        -0.11582090026913644,
        0.0987469710187781,
        0.0,
        1.3103744671021151
      ]
    },
    {
      "label": "Voice",
      "centroid": [
        1.0,
        1.0,
        1.0,
        1.0,
        0.11447811447811448,
        0.12457912457912458,
        0.13468013468013468,
        0.12457912457912458,
        0.13468013468013468,
        0.12121212121212122,
        0.12121212121212122,
        0.12457912457912458,
        0.38047138047138046,
        0.6195286195286195,
        0.1750841750841751,
        0.1919191919191919,
        0.19865319865319866,
        0.2053872053872054,
        0.22895622895622897,
        0.6195286195286195,
        0.367003367003367,
        1.0,
        0.5084175084175084,
        0.4107744107744108,
        0.19865319865319866,
        0.0,
        0.0,
        0.0,
        0.0,
        0.0,
        0.0,
        -0.03117384477506755,
        0.006998952745430184,
        -0.07008871940588157,
        -0.017699577134644852,
        -0.010189333138970823,
        0.0,
        -0.005448219969509462
      ]
    }
  ],
  "linearClassifier": [
    {
      "label": "AmbientPresence",
      "weights": [
        0.09952109205794038,
        0.09952109205794038,
        0.09952109205794038,
        0.09952109205794038,
        0.00655708964654133,
        0.050803600879111,
        0.004878457061913174,
        -0.0007030005673202196,
        0.024318937551075746,
        -0.0672245899210215,
        0.044000956873036116,
        0.03688964053460464,
        -0.04360865293726598,
        0.14312974499520634,
        -0.15844081772078228,
        -0.2816166863230619,
        0.32686276766006095,
        0.03236355931451135,
        0.18035226912721222,
        0.14312974499520634,
        -0.44005750404384436,
        -0.8428768911894328,
        -0.0027019170164051484,
        0.16341918839861644,
        0.32686276766006095,
        0.0,
        0.0,
        0.0,
        0.0,
        0.0,
        0.0,
        -0.16375135892165749,
        0.09739118114258402,
        -0.5959946888351716,
        0.09251799017591612,
        -0.03358246273711827,
        0.0,
        -0.20958071503617645
      ],
      "bias": 0.10024699394888362,
      "classWeight": 1.0
    },
    {
      "label": "Footstep",
      "weights": [
        0.009336084338282931,
        0.009336084338282931,
        0.009336084338282931,
        0.009336084338282931,
        0.008078369047233304,
        -0.0162063589764262,
        0.012541735160970008,
        -0.0018452131263163732,
        -0.027179301998864275,
        9.337727720654736e-05,
        0.017217471822747285,
        0.016636005131732644,
        -0.0289311378479741,
        0.03826722218625704,
        0.17384892668100943,
        0.43239228331445156,
        -0.20429159043170217,
        -0.14313368311997474,
        -0.24947985210550108,
        0.03826722218625704,
        0.6062412099954614,
        -0.7268701894942899,
        0.027167519221649117,
        0.006486482073503183,
        -0.20429159043170217,
        0.0,
        0.0,
        0.0,
        0.0,
        0.0,
        0.0,
        0.054116406911703205,
        0.03215436410759962,
        0.790236612823421,
        -0.06643314221960078,
        -0.0009331931553529774,
        0.0,
        -0.034224430915483536
      ],
      "bias": 0.009394558201572378,
      "classWeight": 1.0
    },
    {
      "label": "None",
      "weights": [
        -0.18513699985119786,
        -0.18513699985119786,
        -0.18513699985119786,
        -0.18513699985119786,
        -0.0393003050855971,
        -0.04635503205246957,
        -0.048789834867003716,
        -0.0033244978974921457,
        0.004505756756723375,
        0.06418662456317524,
        -0.056870554189381715,
        -0.059189157079152184,
        0.06536788342240643,
        -0.2505048832736044,
        -0.08462152671663123,
        -0.11021723531422342,
        -0.12694182799072637,
        0.060141018873577534,
        0.07650257129680559,
        -0.2505048832736044,
        -0.19483876203085468,
        -0.2501085943186219,
        -0.05165015729968786,
        -0.19900474722409525,
        -0.12694182799072637,
        0.0,
        0.0,
        0.0,
        0.0,
        0.0,
        0.0,
        0.16873166111542223,
        -0.1986648475986197,
        -0.23797170642691146,
        -0.04290559751735002,
        0.03874589469551588,
        0.0,
        0.29355422721585794
      ],
      "bias": -0.18693533508520313,
      "classWeight": 1.0
    },
    {
      "label": "Voice",
      "weights": [
        0.07627982345497453,
        0.07627982345497453,
        0.07627982345497453,
        0.07627982345497453,
        0.024664846391822523,
        0.011757790149784774,
        0.031369642644120475,
        0.005872711591128746,
        -0.0016453923089348207,
        0.0029445880806396895,
        -0.004347874506401739,
        0.005663511412814887,
        0.007171907362833626,
        0.06910791609214083,
        0.0692134177564041,
        -0.04055836167716617,
        0.004370650762367481,
        0.05062910493188583,
        -0.007374988318516683,
        0.06910791609214083,
        0.028655056079237927,
        1.8198556750023447,
        0.027184555094443914,
        0.029099076751975667,
        0.004370650762367481,
        0.0,
        0.0,
        0.0,
        0.0,
        0.0,
        0.0,
        -0.05909670910546779,
        0.06911930234843598,
        0.04372978243866239,
        0.016820749561034694,
        -0.004230238803044636,
        0.0,
        -0.04974908126419806
      ],
      "bias": 0.07729378293474709,
      "classWeight": 1.0
    }
  ],
  "regressors": [
    {
      "target": "cueLowPassHz",
      "weights": [
        -16.259519330141487,
        -16.259519330141487,
        -16.259519330141487,
        -16.259519330141487,
        -96.62480998240213,
        -183.7936267984475,
        -184.77378909691933,
        50.719615789879825,
        106.34914414728956,
        80.51340492813532,
        104.42426362537827,
        106.92627805694445,
        237.5821648653047,
        -253.84168419544616,
        -8.974999439976607,
        8.710440153158045,
        -9.348979736223612,
        20.509479810612227,
        -27.15546011771155,
        -253.84168419544616,
        -0.26455928681855867,
        23.254162505369187,
        26.190410815236078,
        689.9344235804587,
        -9.348979736223612,
        0.0,
        0.0,
        0.0,
        0.0,
        0.0,
        0.0,
        -2664.5324086544997,
        -753.4362675070709,
        -25.478401798383533,
        -21.615952239998173,
        26.55208271069338,
        0.0,
        -399.7657577149509
      ],
      "bias": 15535.017086178606
    },
    {
      "target": "cueOcclusionGain",
      "weights": [
        0.0039212788066415975,
        0.0039212788066415975,
        0.0039212788066415975,
        0.0039212788066415975,
        -0.0055221591961048125,
        -0.014653961985907488,
        -0.014949135869565967,
        0.002104982939908076,
        0.016100697122490397,
        0.015112615813340918,
        0.002688652807698866,
        0.003039587174781603,
        0.03331829587573941,
        -0.02939701706909781,
        0.00010542563105629285,
        0.0011748794558590812,
        0.0014811510483154853,
        0.0005248281681048156,
        0.0006349945033059205,
        -0.02939701706909781,
        0.001280305086915374,
        0.0009924070609780226,
        0.0014051768296616857,
        0.0004914855530348924,
        0.0014811510483154853,
        0.0,
        0.0,
        0.0,
        0.0,
        0.0,
        0.0,
        0.001348906364483025,
        -0.06679905068030242,
        -0.0009646619344562048,
        -0.0015379453969466255,
        0.0003533622331627415,
        0.0,
        0.03578051476225912
      ],
      "bias": 0.8269447022434114
    },
    {
      "target": "cueReverbAmount",
      "weights": [
        -0.0015179768294017375,
        -0.0015179768294017375,
        -0.0015179768294017375,
        -0.0015179768294017375,
        -0.0007133239737270447,
        -0.00033118817445830154,
        -0.00018854914855516653,
        -8.605988289732582e-05,
        -0.00040508167561902574,
        -0.0033794990414137208,
        0.0016527517640900463,
        0.0019329733031788001,
        -0.0038706405999300716,
        0.0023526637705283304,
        0.0003010082660763706,
        0.00272831360382279,
        0.00392604204434293,
        -0.003204407330350455,
        -0.005268933413293374,
        0.0023526637705283304,
        0.0030293218698991607,
        0.008684874720188807,
        -0.001821790088382143,
        0.004185722311001354,
        0.00392604204434293,
        0.0,
        0.0,
        0.0,
        0.0,
        0.0,
        0.0,
        -0.005165733642192928,
        0.0014952540975187074,
        0.005998154961816615,
        0.001231711219053728,
        -0.0013280921240412238,
        0.0,
        -0.007674399114513907
      ],
      "bias": 0.23847992809505206
    },
    {
      "target": "presenceScore",
      "weights": [
        -0.015704757982593725,
        -0.015704757982593725,
        -0.015704757982593725,
        -0.015704757982593725,
        -0.0035791092732413996,
        0.0014794970455486295,
        0.00042706640557952914,
        -0.0079685034420158,
        -0.014956779919946202,
        -0.017253636221975528,
        0.013061827345188234,
        0.013084880078268815,
        -0.040178919583937545,
        0.02447416160134379,
        0.019076889289093676,
        -0.010813536250599267,
        0.024162300950574662,
        -0.01706450586862764,
        -0.031065906103035165,
        0.02447416160134379,
        0.00826335303849441,
        0.06835249988214953,
        0.03671458637501087,
        0.030753730049240705,
        0.024162300950574662,
        0.0,
        0.0,
        0.0,
        0.0,
        0.0,
        0.0,
        -0.0971387287391495,
        0.034480372270118034,
        0.05467141598172211,
        0.00595533443394723,
        -0.0013146763155282711,
        0.0,
        -0.019319687679010485
      ],
      "bias": 0.5181746502431476
    },
    {
      "target": "volumeGain",
      "weights": [
        -0.010401397099531163,
        -0.010401397099531163,
        -0.010401397099531163,
        -0.010401397099531163,
        -0.006408901256433012,
        -0.007564897039863166,
        -0.008280244846487927,
        -0.0042796666642118345,
        -0.0036173914898961932,
        -0.00624869170244682,
        0.013064456793426648,
        0.012933939106381142,
        -0.014145749856554849,
        0.0037443527570236875,
        0.012707027364445907,
        -0.00641215625526101,
        0.01776476237436155,
        -0.01244203546623616,
        -0.022018995116841453,
        0.0037443527570236875,
        0.006294871109184901,
        0.04916691435385797,
        0.02576587142979071,
        0.03860730427760953,
        0.01776476237436155,
        0.0,
        0.0,
        0.0,
        0.0,
        0.0,
        0.0,
        -0.10309333284822676,
        -0.011541474998036545,
        0.037910479959905936,
        0.004102647074859569,
        -0.0009522338892225566,
        0.0,
        -0.007991963039598012
      ],
      "bias": 0.36349701335757045
    }
  ],
  "targetClassColumn": "cueType",
  "targetRegressionColumns": [
    "presenceScore",
    "volumeGain",
    "cueLowPassHz",
    "cueReverbAmount",
    "cueOcclusionGain"
  ],
  "classCounts": [
    {
      "label": "AmbientPresence",
      "count": 150
    },
    {
      "label": "Footstep",
      "count": 129
    },
    {
      "label": "None",
      "count": 24
    },
    {
      "label": "Voice",
      "count": 297
    }
  ],
  "metrics": {
    "train": {
      "rows": 600,
      "cueTypeAccuracy": 0.9683333333333334,
      "cueTypePerClassAccuracy": {
        "AmbientPresence": 1.0,
        "Footstep": 1.0,
        "None": 0.20833333333333334,
        "Voice": 1.0
      },
      "cueTypeConfusion": {
        "AmbientPresence": {
          "AmbientPresence": 150,
          "Footstep": 0,
          "None": 0,
          "Voice": 0
        },
        "Footstep": {
          "AmbientPresence": 0,
          "Footstep": 129,
          "None": 0,
          "Voice": 0
        },
        "None": {
          "AmbientPresence": 19,
          "Footstep": 0,
          "None": 5,
          "Voice": 0
        },
        "Voice": {
          "AmbientPresence": 0,
          "Footstep": 0,
          "None": 0,
          "Voice": 297
        }
      },
      "regressionMae": {
        "presenceScore": 0.0583184225595061,
        "volumeGain": 0.04637815849969162,
        "cueLowPassHz": 998.4204256205059,
        "cueReverbAmount": 0.021767515493352627,
        "cueOcclusionGain": 0.022727411636172368
      }
    },
    "test": {
      "rows": 200,
      "cueTypeAccuracy": 0.96,
      "cueTypePerClassAccuracy": {
        "AmbientPresence": 1.0,
        "Footstep": 1.0,
        "None": 0.3333333333333333,
        "Voice": 1.0
      },
      "cueTypeConfusion": {
        "AmbientPresence": {
          "AmbientPresence": 54,
          "Footstep": 0,
          "None": 0,
          "Voice": 0
        },
        "Footstep": {
          "AmbientPresence": 0,
          "Footstep": 31,
          "None": 0,
          "Voice": 0
        },
        "None": {
          "AmbientPresence": 8,
          "Footstep": 0,
          "None": 4,
          "Voice": 0
        },
        "Voice": {
          "AmbientPresence": 0,
          "Footstep": 0,
          "None": 0,
          "Voice": 103
        }
      },
      "regressionMae": {
        "presenceScore": 0.061985356539268295,
        "volumeGain": 0.048879112087136314,
        "cueLowPassHz": 1009.3944790776347,
        "cueReverbAmount": 0.025452063439106897,
        "cueOcclusionGain": 0.02383786925426854
      }
    },
    "epochs": 80,
    "classifier": "linear",
    "classifierEpochs": 220,
    "classWeight": "none",
    "splitMode": "random",
    "groupColumns": []
  }
}