{
  "modelType": "linear_classifier_plus_linear_regressors",
  "featureEncoder": {
    "categoricalColumns": [
      "conditionLabel",
      "cueCondition",
      "materialClass",
      "targetId",
      "directionLabel",
      "viewState",
      "motionState"
    ],
    "booleanColumns": [
      "outOfView",
      "approaching",
      "speaking",
      "gazing",
      "near",
      "crossing",
      "frontHemisphere",
      "sideHemisphere",
      "rearHemisphere",
      "far",
      "activeMotion",
      "passivePresenceCandidate"
    ],
    "numericColumns": [
      "roomScale",
      "environmentReverbAmount",
      "environmentOcclusionStrength",
      "environmentDistanceAttenuation",
      "environmentRt60",
      "environmentDrr",
      "distance",
      "viewAngle",
      "radialSpeed",
      "lateralSpeed",
      "localX",
      "localY",
      "localZ"
    ],
    "categorySets": [
      {
        "column": "conditionLabel",
        "categories": [
          "Simulation"
        ]
      },
      {
        "column": "cueCondition",
        "categories": [
          "SimulationObjective"
        ]
      },
      {
        "column": "materialClass",
        "categories": [
          "Neutral"
        ]
      },
      {
        "column": "targetId",
        "categories": [
          "SimTarget"
        ]
      },
      {
        "column": "directionLabel",
        "categories": [
          "Back",
          "BackLeft",
          "BackRight",
          "Front",
          "FrontLeft",
          "FrontRight",
          "Left",
          "Right"
        ]
      },
      {
        "column": "viewState",
        "categories": [
          "InView",
          "OutOfView"
        ]
      },
      {
        "column": "motionState",
        "categories": [
          "ApproachingFast",
          "ApproachingSlow",
          "Crossing",
          "Leaving",
          "Static"
        ]
      }
    ],
    "numericStats": [
      {
        "column": "roomScale",
        "mean": 1.0,
        "std": 1.0
      },
      {
        "column": "environmentReverbAmount",
        "mean": 0.25,
        "std": 1.0
      },
      {
        "column": "environmentOcclusionStrength",
        "mean": 0.35,
        "std": 1.0
      },
      {
        "column": "environmentDistanceAttenuation",
        "mean": 0.35,
        "std": 1.0
      },
      {
        "column": "environmentRt60",
        "mean": 0.45,
        "std": 1.0
      },
      {
        "column": "environmentDrr",
        "mean": 6.0,
        "std": 1.0
      },
      {
        "column": "distance",
        "mean": 3.45,
        "std": 2.293468988235943
      },
      {
        "column": "viewAngle",
        "mean": 102.0,
        "std": 56.84188596448925
      },
      {
        "column": "radialSpeed",
        "mean": 0.27666666666666667,
        "std": 0.7108367526295253
      },
      {
        "column": "lateralSpeed",
        "mean": 0.04,
        "std": 0.5782732917920383
      },
      {
        "column": "localX",
        "mean": 0.33513454666666664,
        "std": 2.7327255198683593
      },
      {
        "column": "localY",
        "mean": 0.0,
        "std": 1.0
      },
      {
        "column": "localZ",
        "mean": -0.52343264,
        "std": 3.050969337647005
      }
    ]
  },
  "classifier": [
    {
      "label": "AmbientPresence",
      "centroid": [
        1.0,
        1.0,
        1.0,
        1.0,
        0.136986301369863,
        0.2054794520547945,
        0.136986301369863,
        0.0273972602739726,
        0.0958904109589041,
        0.1232876712328767,
        0.0684931506849315,
        0.2054794520547945,
        0.2465753424657534,
        0.7534246575342466,
        0.0,
        0.0,
        0.4794520547945205,
        0.3561643835616438,
        0.1643835616438356,
        0.7534246575342466,
        0.0,
        0.0,
        0.5,
        0.4657534246575342,
        0.4794520547945205,
        0.2465753424657534,
        0.8356164383561644,
        0.4794520547945205,
        0.3561643835616438,
        0.4794520547945205,
        1.0,
        0.0,
        0.0,
        0.0,
        0.0,
        0.0,
        0.0,
        -0.11109569035155105,
        0.1503810976789123,
        -0.6898423512708017,
        0.07296166262696949,
        0.015044281392548412,
        0.0,
        -0.17764825778788904
      ]
    },
    {
      "label": "Footstep",
      "centroid": [
        1.0,
        1.0,
        1.0,
        1.0,
        0.15384615384615385,
        0.15384615384615385,
        0.15384615384615385,
        0.15384615384615385,
        0.0,
        0.07692307692307693,
        0.15384615384615385,
        0.15384615384615385,
        0.23076923076923078,
        0.7692307692307693,
        0.5384615384615384,
        0.46153846153846156,
        0.0,
        0.0,
        0.0,
        0.7692307692307693,
        1.0,
        0.0,
        0.5,
        0.4,
        0.0,
        0.23076923076923078,
        0.6923076923076923,
        0.46153846153846156,
        0.4,
        1.0,
        0.0,
        0.0,
        0.0,
        0.0,
        0.0,
        0.0,
        0.0,
        -9.43689570931383e-17,
        0.05277798139692597,
        0.9634726853082921,
        -0.06917144638660748,
        -0.053967842522261375,
        0.0,
        -0.06825089089397708
      ]
    },
    {
      "label": "None",
      "centroid": [
        1.0,
        1.0,
        1.0,
        1.0,
        0.0,
        0.0,
        0.0,
        0.25,
        0.25,
        0.5,
        0.0,
        0.0,
        1.0,
        0.0,
        0.0,
        0.0,
        0.0,
        0.75,
        0.25,
        0.0,
        0.0,
        0.0,
        0.5,
        0.0,
        0.0,
        1.0,
        0.75,
        0.0,
        0.6666666666666666,
        0.0,
        0.0,
        0.0,
        0.0,
        0.0,
        0.0,
        0.0,
        0.0,
        0.6758321163052683,
        -1.2006990767800654,
        -1.0222694085225383,
        -0.06917144638660748,
        0.20080643519091312,
        0.0,
        1.450385893885368
      ]
    },
    {
      "label": "Voice",
      "centroid": [
        1.0,
        1.0,
        1.0,
        1.0,
        0.13333333333333333,
        0.16666666666666666,
        0.13333333333333333,
        0.1,
        0.06666666666666667,
        0.13333333333333333,
        0.1,
        0.16666666666666666,
        0.3,
        0.7,
        0.23333333333333334,
        0.2,
        0.23333333333333334,
        0.23333333333333334,
        0.1,
        0.7,
        0.43333333333333335,
        1.0,
        0.5,
        0.4,
        0.23333333333333334,
        0.3,
        0.7666666666666667,
        0.43333333333333335,
        0.4,
        1.0,
        0.0,
        0.0,
        0.0,
        0.0,
        0.0,
        0.0,
        0.0,
        -9.43689570931383e-17,
        1.4802973661668754e-17,
        -1.295260195396016e-17,
        -2.0816681711721685e-17,
        1.3461454173580023e-17,
        0.0,
        4.17258820088288e-17
      ]
    }
  ],
  "linearClassifier": [
    {
      "label": "AmbientPresence",
      "weights": [
        0.04540808783750382,
        0.04540808783750382,
        0.04540808783750382,
        0.04540808783750382,
        -0.002248248294079259,
        0.03998642982057498,
        -0.005502498333864107,
        -0.06360889747116896,
        0.029647270627582448,
        -0.009272402061547691,
        -0.006319830481113951,
        0.06272626403112039,
        -0.0432340289051342,
        0.08864211674263806,
        -0.15267789588792027,
        -0.22110845306510304,
        0.3214544010471411,
        0.020503457038260325,
        0.07723657870512533,
        0.08864211674263806,
        -0.3737863489530233,
        -0.611178352902043,
        0.021799577067003112,
        0.10410216573211381,
        0.3214544010471411,
        -0.0432340289051342,
        0.11126523360275212,
        0.03223568319263162,
        -0.020656814360528103,
        -0.31259187215416506,
        1.0184376392761392,
        0.0,
        0.0,
        0.0,
        0.0,
        0.0,
        0.0,
        -0.11394133024544646,
        0.10783822654034618,
        -0.47565469201796917,
        0.028514632400013236,
        -0.0024759706480333987,
        0.0,
        -0.18225266004615495
      ],
      "bias": 0.045821093972433696,
      "classWeight": 1.0
    },
    {
      "label": "Footstep",
      "weights": [
        0.03097167726368061,
        0.03097167726368061,
        0.03097167726368061,
        0.03097167726368061,
        0.018811689346961223,
        -0.0074573017962305055,
        0.03338854891640767,
        0.0645686182137085,
        -0.05995006297066667,
        -0.058913662393829086,
        0.04190654088040543,
        -0.0013826929330759275,
        -0.05429510715078723,
        0.08526678441446782,
        0.16537854635526178,
        0.3898234855076231,
        -0.22494509233853913,
        -0.18133439872305923,
        -0.11795086353760638,
        0.08526678441446782,
        0.5552020318628855,
        -0.7910504236376317,
        0.019002746655329566,
        0.02672015120845673,
        -0.22494509233853913,
        -0.05429510715078723,
        -0.05240863029698917,
        0.04474293646713843,
        0.0034539525370391204,
        0.20984186702641053,
        -0.26384498948275237,
        0.0,
        0.0,
        0.0,
        0.0,
        0.0,
        0.0,
        -0.023723294519167267,
        0.04248554921189998,
        0.7135004486245914,
        -0.03529801976992193,
        -0.025831910763951357,
        0.0,
        -0.05603888757473851
      ],
      "bias": 0.031160539383890594,
      "classWeight": 1.0
    },
    {
      "label": "None",
      "weights": [
        -0.13407758970447028,
        -0.13407758970447028,
        -0.13407758970447028,
        -0.13407758970447028,
        -0.039875002867751946,
        -0.050106070008569634,
        -0.03901329537966766,
        -0.00896505631069176,
        0.03536470044532399,
        0.07602507847034114,
        -0.035471445917315464,
        -0.0720364981361389,
        0.10242472260497332,
        -0.23650231230944357,
        -0.08517538600906878,
        -0.08641680491771779,
        -0.10924380525352714,
        0.11278420467983107,
        0.03397420179601261,
        -0.23650231230944357,
        -0.17159219092678668,
        -0.21672212947840513,
        -0.05799544044166217,
        -0.17370821496940478,
        -0.10924380525352714,
        0.10242472260497332,
        -0.08523753052602649,
        -0.12899436825598928,
        0.010433939976284733,
        -0.3772254592897131,
        -0.14429761271411365,
        0.0,
        0.0,
        0.0,
        0.0,
        0.0,
        0.0,
        0.1728947535734917,
        -0.20289027875299104,
        -0.2654742103827076,
        -0.00987501345788648,
        0.03759205430443542,
        0.0,
        0.297408824936869
      ],
      "bias": -0.13546070351202752,
      "classWeight": 1.0
    },
    {
      "label": "Voice",
      "weights": [
        0.057697824603285666,
        0.057697824603285666,
        0.057697824603285666,
        0.057697824603285666,
        0.02331156181486999,
        0.017576941984225162,
        0.011127244797124092,
        0.008005335568152225,
        -0.005061908102239761,
        -0.007839014014964356,
        -0.0001152644819759529,
        0.010692927038094352,
        -0.004895586549051928,
        0.06259341115233767,
        0.0724747355417274,
        -0.08229822752480263,
        0.01273449654492477,
        0.04804673700496781,
        0.0067400830364684194,
        0.06259341115233767,
        -0.009823491983075276,
        1.6189509060180804,
        0.017193116719329538,
        0.0428858980288342,
        0.01273449654492477,
        -0.004895586549051928,
        0.02638092722026355,
        0.052015748596219255,
        0.006768921847204233,
        0.4799754644174676,
        -0.6102950370792734,
        0.0,
        0.0,
        0.0,
        0.0,
        0.0,
        0.0,
        -0.03523012880887814,
        0.052566503000744676,
        0.0276284537760853,
        0.01665840082779513,
        -0.009284172892450683,
        0.0,
        -0.059117277315975374
      ],
      "bias": 0.058479070155703,
      "classWeight": 1.0
    }
  ],
  "regressors": [
    {
      "target": "cueLowPassHz",
      "weights": [
        50.90072244124859,
        50.90072244124859,
        50.90072244124859,
        50.90072244124859,
        -59.48961005426996,
        -172.63713292987933,
        -115.77452901256156,
        33.657437223145614,
        47.647801467989765,
        127.27103381222405,
        50.43010486140647,
        139.7956170731936,
        208.5762725033594,
        -157.67555006211077,
        17.9429416033804,
        -9.241093099379265,
        7.840339223686424,
        11.286929502902304,
        23.07160521065872,
        -157.67555006211077,
        8.701848504001148,
        31.09313566529389,
        18.034798432319544,
        567.4239359737315,
        7.840339223686424,
        208.5762725033594,
        76.73289527237293,
        -347.9012719967109,
        -1009.4315845828619,
        36.70321546552961,
        108.80578312215141,
        0.0,
        0.0,
        0.0,
        0.0,
        0.0,
        0.0,
        -2266.0772052883312,
        -601.1427954689169,
        0.1504360025413532,
        10.87843060443984,
        -82.54013292376034,
        0.0,
        -337.4475682305955
      ],
      "bias": 15347.949934873765
    },
    {
      "target": "cueOcclusionGain",
      "weights": [
        0.0041500976475101455,
        0.0041500976475101455,
        0.0041500976475101455,
        0.0041500976475101455,
        -0.0027978689337621646,
        -0.013979086479062413,
        -0.012124065210227878,
        0.0033237260395452156,
        0.008517577078027326,
        0.01545050404813948,
        0.0030541235100804832,
        0.0027051875947700817,
        0.02729180716571201,
        -0.023141709518201877,
        0.0015236763985681753,
        -0.002416642681461212,
        0.002030524681337215,
        0.0016025411705189248,
        0.00140999807854704,
        -0.023141709518201877,
        -0.0008929662828930356,
        0.0011044985650472976,
        0.0013390345290587482,
        0.0004957987660530116,
        0.002030524681337215,
        0.02729180716571201,
        0.003624240541727091,
        -0.028901020623052456,
        0.002524979150428229,
        0.0021221566339808097,
        0.0006408997901831857,
        0.0,
        0.0,
        0.0,
        0.0,
        0.0,
        0.0,
        0.0024254457886584715,
        -0.057096935056487504,
        -0.001496912799619729,
        -0.001345056932563005,
        0.0016841859784357152,
        0.0,
        0.02954706577739717
      ],
      "bias": 0.8011574994890487
    },
    {
      "target": "cueReverbAmount",
      "weights": [
        -0.0025981185696153444,
        -0.0025981185696153444,
        -0.0025981185696153444,
        -0.0025981185696153444,
        -0.0011898966874944305,
        -4.836578138089696e-05,
        -0.00031589102100864833,
        0.00037448352292781585,
        -0.0013763337272410731,
        -0.0032420696797783276,
        0.0005230144227139831,
        0.0026769403816462333,
        -0.0042439198840915834,
        0.0016458013144762375,
        4.7472632231197126e-05,
        0.0014985367295937545,
        0.0031543543218791586,
        -0.005130060384749485,
        -0.002168421868569969,
        0.0016458013144762375,
        0.00154600936182495,
        0.007864258105299057,
        -0.0009445204264067906,
        0.0036014318327361903,
        0.0031543543218791586,
        -0.0042439198840915834,
        -0.0017827054050487303,
        -0.0015541534898839767,
        -0.002343888921245765,
        0.01144360210345134,
        0.007020837153221318,
        0.0,
        0.0,
        0.0,
        0.0,
        0.0,
        0.0,
        -0.004888820157083438,
        0.0013433042865182896,
        0.006383536348908707,
        -0.0004570005628921108,
        0.0003642070791620374,
        0.0,
        -0.008402920001536075
      ],
      "bias": 0.23739842765347408
    },
    {
      "target": "presenceScore",
      "weights": [
        -0.01479504746584689,
        -0.01479504746584689,
        -0.01479504746584689,
        -0.01479504746584689,
        -0.0037949971909393173,
        -0.002738120269803408,
        0.0019514733972411965,
        -0.00910712686312855,
        -0.008110993917003735,
        -0.017856074538185565,
        0.011149399362929262,
        0.013711392553043225,
        -0.035074195318317875,
        0.020279147852470977,
        0.019350819934811383,
        -0.015393859747036453,
        0.024384093927506578,
        -0.02583372671122511,
        -0.01730237486990329,
        0.020279147852470977,
        0.003956960187774932,
        0.06235830492973086,
        0.03805728791012454,
        0.03007758893117794,
        0.024384093927506578,
        -0.035074195318317875,
        -0.0018929234117790262,
        -0.004581644063501527,
        -0.04016482746818871,
        0.032243164237968164,
        -0.02083790506999799,
        0.0,
        0.0,
        0.0,
        0.0,
        0.0,
        0.0,
        -0.08416318960136704,
        0.03126130454797176,
        0.055930483852705916,
        0.003188649569256945,
        -0.003358354395347133,
        0.0,
        -0.012952693507003812
      ],
      "bias": 0.5457362446569559
    },
    {
      "target": "volumeGain",
      "weights": [
        -0.008789728176390869,
        -0.008789728176390869,
        -0.008789728176390869,
        -0.008789728176390869,
        -0.00537728620725679,
        -0.00964922004556635,
        -0.005724043856412454,
        -0.004838046651826185,
        -0.002660844209093581,
        -0.005715931855417075,
        0.010735406432755414,
        0.014440238216426145,
        -0.01321482271633684,
        0.004425094539945972,
        0.013633118945812813,
        -0.010816074099449277,
        0.017884687275438956,
        -0.018122628584218037,
        -0.011368831713975326,
        0.004425094539945972,
        0.002817044846363538,
        0.04373666684534506,
        0.02606909710264019,
        0.037218942604124755,
        0.017884687275438956,
        -0.01321482271633684,
        0.001425604682692104,
        -0.020750550109235592,
        -0.03986414854140169,
        0.02475129965206173,
        -0.010922059132678092,
        0.0,
        0.0,
        0.0,
        0.0,
        0.0,
        0.0,
        -0.08906413340229062,
        -0.008593939571128754,
        0.038721316847456284,
        0.0012130359780594983,
        -0.002399769715323425,
        0.0,
        -0.004401149697732292
      ],
      "bias": 0.3706415330884998
    }
  ],
  "targetClassColumn": "cueType",
  "targetRegressionColumns": [
    "presenceScore",
    "volumeGain",
    "cueLowPassHz",
    "cueReverbAmount",
    "cueOcclusionGain"
  ],
  "classCounts": [
    {
      "label": "AmbientPresence",
      "count": 146
    },
    {
      "label": "Footstep",
      "count": 130
    },
    {
      "label": "None",
      "count": 24
    },
    {
      "label": "Voice",
      "count": 300
    }
  ],
  "metrics": {
    "train": {
      "rows": 600,
      "cueTypeAccuracy": 0.99,
      "cueTypePerClassAccuracy": {
        "AmbientPresence": 1.0,
        "Footstep": 1.0,
        "None": 0.75,
        "Voice": 1.0
      },
      "cueTypeConfusion": {
        "AmbientPresence": {
          "AmbientPresence": 146,
          "Footstep": 0,
          "None": 0,
          "Voice": 0
        },
        "Footstep": {
          "AmbientPresence": 0,
          "Footstep": 130,
          "None": 0,
          "Voice": 0
        },
        "None": {
          "AmbientPresence": 6,
          "Footstep": 0,
          "None": 18,
          "Voice": 0
        },
        "Voice": {
          "AmbientPresence": 0,
          "Footstep": 0,
          "None": 0,
          "Voice": 300
        }
      },
      "regressionMae": {
        "presenceScore": 0.0521752526506856,
        "volumeGain": 0.04138181108851307,
        "cueLowPassHz": 963.0528837243504,
        "cueReverbAmount": 0.021280419438740317,
        "cueOcclusionGain": 0.017316617298916898
      }
    },
    "test": {
      "rows": 200,
      "cueTypeAccuracy": 0.99,
      "cueTypePerClassAccuracy": {
        "AmbientPresence": 1.0,
        "Footstep": 1.0,
        "None": 0.8333333333333334,
        "Voice": 1.0
      },
      "cueTypeConfusion": {
        "AmbientPresence": {
          "AmbientPresence": 58,
          "Footstep": 0,
          "None": 0,
          "Voice": 0
        },
        "Footstep": {
          "AmbientPresence": 0,
          "Footstep": 30,
          "None": 0,
          "Voice": 0
        },
        "None": {
          "AmbientPresence": 2,
          "Footstep": 0,
          "None": 10,
          "Voice": 0
        },
        "Voice": {
          "AmbientPresence": 0,
          "Footstep": 0,
          "None": 0,
          "Voice": 100
        }
      },
      "regressionMae": {
        "presenceScore": 0.06019544573141432,
        "volumeGain": 0.0504811564279085,
        "cueLowPassHz": 944.4027947634665,
        "cueReverbAmount": 0.02979998517624259,
        "cueOcclusionGain": 0.021506608824092485
      }
    },
    "epochs": 80,
    "classifier": "linear",
    "classifierEpochs": 220,
    "classWeight": "none",
    "splitMode": "group",
    "groupColumns": [
      "directionLabel",
      "motionState"
    ]
  }
}